digraph Tree {
node [shape=box, fontname="helvetica"] ;
edge [fontname="helvetica"] ;
0 [label="Contract <= 0.5\ngini = 0.5\nsamples = 7738\nvalue = [3869, 3869]\nclass = No"] ;
1 [label="OnlineSecurity <= 0.5\ngini = 0.434\nsamples = 5228\nvalue = [1662, 3566]\nclass = Yes"] ;
0 -> 1 [labeldistance=2.5, labelangle=45, headlabel="True"] ;
2 [label="TechSupport <= 1.5\ngini = 0.376\nsamples = 3877\nvalue = [975, 2902]\nclass = Yes"] ;
1 -> 2 ;
3 [label="Partner <= 0.5\ngini = 0.337\nsamples = 3483\nvalue = [746, 2737]\nclass = Yes"] ;
2 -> 3 ;
4 [label="gini = 0.282\nsamples = 2688\nvalue = [457, 2231]\nclass = Yes"] ;
3 -> 4 ;
5 [label="gini = 0.463\nsamples = 795\nvalue = [289, 506]\nclass = Yes"] ;
3 -> 5 ;
6 [label="MonthlyCharges <= 83.675\ngini = 0.487\nsamples = 394\nvalue = [229, 165]\nclass = No"] ;
2 -> 6 ;
7 [label="gini = 0.382\nsamples = 202\nvalue = [150, 52]\nclass = No"] ;
6 -> 7 ;
8 [label="gini = 0.484\nsamples = 192\nvalue = [79, 113]\nclass = Yes"] ;
6 -> 8 ;
9 [label="MonthlyCharges <= 71.546\ngini = 0.5\nsamples = 1351\nvalue = [687, 664]\nclass = No"] ;
1 -> 9 ;
10 [label="TotalCharges <= 21.0\ngini = 0.477\nsamples = 824\nvalue = [500, 324]\nclass = No"] ;
9 -> 10 ;
11 [label="gini = 0.481\nsamples = 181\nvalue = [73, 108]\nclass = Yes"] ;
10 -> 11 ;
12 [label="gini = 0.446\nsamples = 643\nvalue = [427, 216]\nclass = No"] ;
10 -> 12 ;
13 [label="OnlineSecurity <= 1.5\ngini = 0.458\nsamples = 527\nvalue = [187, 340]\nclass = Yes"] ;
9 -> 13 ;
14 [label="gini = 0.0\nsamples = 195\nvalue = [0, 195]\nclass = Yes"] ;
13 -> 14 ;
15 [label="gini = 0.492\nsamples = 332\nvalue = [187, 145]\nclass = No"] ;
13 -> 15 ;
16 [label="MonthlyCharges <= 93.467\ngini = 0.212\nsamples = 2510\nvalue = [2207, 303]\nclass = No"] ;
0 -> 16 [labeldistance=2.5, labelangle=-45, headlabel="False"] ;
17 [label="Contract <= 1.5\ngini = 0.119\nsamples = 1810\nvalue = [1695, 115]\nclass = No"] ;
16 -> 17 ;
18 [label="MonthlyCharges <= 42.325\ngini = 0.213\nsamples = 852\nvalue = [749, 103]\nclass = No"] ;
17 -> 18 ;
19 [label="gini = 0.06\nsamples = 322\nvalue = [312, 10]\nclass = No"] ;
18 -> 19 ;
20 [label="gini = 0.289\nsamples = 530\nvalue = [437, 93]\nclass = No"] ;
18 -> 20 ;
21 [label="SeniorCitizen <= 0.5\ngini = 0.025\nsamples = 958\nvalue = [946, 12]\nclass = No"] ;
17 -> 21 ;
22 [label="gini = 0.018\nsamples = 898\nvalue = [890, 8]\nclass = No"] ;
21 -> 22 ;
23 [label="gini = 0.124\nsamples = 60\nvalue = [56, 4]\nclass = No"] ;
21 -> 23 ;
24 [label="Contract <= 1.5\ngini = 0.393\nsamples = 700\nvalue = [512, 188]\nclass = No"] ;
16 -> 24 ;
25 [label="OnlineBackup <= 1.5\ngini = 0.48\nsamples = 391\nvalue = [235, 156]\nclass = No"] ;
24 -> 25 ;
26 [label="gini = 0.499\nsamples = 143\nvalue = [69, 74]\nclass = Yes"] ;
25 -> 26 ;
27 [label="gini = 0.443\nsamples = 248\nvalue = [166, 82]\nclass = No"] ;
25 -> 27 ;
28 [label="MonthlyCharges <= 94.2\ngini = 0.186\nsamples = 309\nvalue = [277, 32]\nclass = No"] ;
24 -> 28 ;
29 [label="gini = 0.375\nsamples = 4\nvalue = [1, 3]\nclass = Yes"] ;
28 -> 29 ;
30 [label="gini = 0.172\nsamples = 305\nvalue = [276, 29]\nclass = No"] ;
28 -> 30 ;
}